<?xml version="1.0"?>
<opencv_storage>
<cascade>
  <stageType>BOOST</stageType>
  <featureType>HAAR</featureType>
  <height>50</height>
  <width>25</width>
  <stageParams>
    <boostType>GAB</boostType>
    <minHitRate>9.9500000476837158e-01</minHitRate>
    <maxFalseAlarm>5.0000000000000000e-01</maxFalseAlarm>
    <weightTrimRate>9.4999998807907104e-01</weightTrimRate>
    <maxDepth>1</maxDepth>
    <maxWeakCount>100</maxWeakCount></stageParams>
  <featureParams>
    <maxCatCount>0</maxCatCount>
    <featSize>1</featSize>
    <mode>BASIC</mode></featureParams>
  <stageNum>3</stageNum>
  <stages>
    <!-- stage 0 -->
    <_>
      <maxWeakCount>2</maxWeakCount>
      <stageThreshold>-5.2779906988143921e-01</stageThreshold>
      <weakClassifiers>
        <_>
          <internalNodes>
            0 -1 5 -2.0367356482893229e-03</internalNodes>
          <leafValues>
            1. -9.8807156085968018e-01</leafValues></_>
        <_>
          <internalNodes>
            0 -1 1 4.7137431800365448e-02</internalNodes>
          <leafValues>
            -1. 4.6027246117591858e-01</leafValues></_></weakClassifiers></_>
    <!-- stage 1 -->
    <_>
      <maxWeakCount>2</maxWeakCount>
      <stageThreshold>-4.8054054379463196e-01</stageThreshold>
      <weakClassifiers>
        <_>
          <internalNodes>
            0 -1 4 5.4647321812808514e-03</internalNodes>
          <leafValues>
            -9.8804783821105957e-01 5.0000000000000000e-01</leafValues></_>
        <_>
          <internalNodes>
            0 -1 2 -4.5861504971981049e-02</internalNodes>
          <leafValues>
            5.6590247154235840e-01 -9.8054051399230957e-01</leafValues></_></weakClassifiers></_>
    <!-- stage 2 -->
    <_>
      <maxWeakCount>2</maxWeakCount>
      <stageThreshold>0.</stageThreshold>
      <weakClassifiers>
        <_>
          <internalNodes>
            0 -1 3 -1.2796802446246147e-02</internalNodes>
          <leafValues>
            1. -9.9203187227249146e-01</leafValues></_>
        <_>
          <internalNodes>
            0 -1 0 -1.9816892221570015e-02</internalNodes>
          <leafValues>
            1. -1.</leafValues></_></weakClassifiers></_></stages>
  <features>
    <_>
      <rects>
        <_>
          0 5 13 6 -1.</_>
        <_>
          0 8 13 3 2.</_></rects>
      <tilted>0</tilted></_>
    <_>
      <rects>
        <_>
          0 20 9 10 -1.</_>
        <_>
          3 20 3 10 3.</_></rects>
      <tilted>0</tilted></_>
    <_>
      <rects>
        <_>
          2 35 8 7 -1.</_>
        <_>
          6 35 4 7 2.</_></rects>
      <tilted>0</tilted></_>
    <_>
      <rects>
        <_>
          9 38 7 6 -1.</_>
        <_>
          9 41 7 3 2.</_></rects>
      <tilted>0</tilted></_>
    <_>
      <rects>
        <_>
          11 41 3 3 -1.</_>
        <_>
          11 42 3 1 3.</_></rects>
      <tilted>0</tilted></_>
    <_>
      <rects>
        <_>
          16 44 3 1 -1.</_>
        <_>
          17 44 1 1 3.</_></rects>
      <tilted>0</tilted></_></features></cascade>
</opencv_storage>
